digraph Tree {
node [shape=box, style="rounded", color="black", fontname=helvetica] ;
edge [fontname=helvetica] ;
0 [label="temp_1 <= 62.5\nmse = 143.7\nsamples = 155\nvalue = 63.4"] ;
1 [label="average <= 47.6\nmse = 46.8\nsamples = 72\nvalue = 53.1"] ;
0 -> 1 [labeldistance=2.5, labelangle=45, headlabel="True"] ;
2 [label="average <= 46.8\nmse = 15.7\nsamples = 20\nvalue = 44.3"] ;
1 -> 2 ;
3 [label="mse = 10.2\nsamples = 16\nvalue = 42.4"] ;
2 -> 3 ;
4 [label="mse = 2.1\nsamples = 4\nvalue = 48.5"] ;
2 -> 4 ;
5 [label="temp_2 <= 57.5\nmse = 19.6\nsamples = 52\nvalue = 56.3"] ;
1 -> 5 ;
6 [label="mse = 13.3\nsamples = 30\nvalue = 53.6"] ;
5 -> 6 ;
7 [label="mse = 4.1\nsamples = 22\nvalue = 60.0"] ;
5 -> 7 ;
8 [label="temp_1 <= 71.5\nmse = 62.3\nsamples = 83\nvalue = 72.0"] ;
0 -> 8 [labeldistance=2.5, labelangle=-45, headlabel="False"] ;
9 [label="forecast_acc <= 70.5\nmse = 38.6\nsamples = 41\nvalue = 67.5"] ;
8 -> 9 ;
10 [label="mse = 32.6\nsamples = 26\nvalue = 65.3"] ;
9 -> 10 ;
11 [label="mse = 25.1\nsamples = 15\nvalue = 71.5"] ;
9 -> 11 ;
12 [label="temp_1 <= 83.5\nmse = 40.9\nsamples = 42\nvalue = 77.1"] ;
8 -> 12 ;
13 [label="mse = 33.6\nsamples = 36\nvalue = 75.8"] ;
12 -> 13 ;
14 [label="mse = 16.3\nsamples = 6\nvalue = 84.9"] ;
12 -> 14 ;
}