digraph Tree {
node [shape=box, style="rounded", color="black", fontname=helvetica] ;
edge [fontname=helvetica] ;
0 [label="temp_1 <= 66.5\nmse = 146.7\nsamples = 163\nvalue = 64.7"] ;
1 [label="temp_1 <= 57.5\nmse = 56.1\nsamples = 92\nvalue = 55.2"] ;
0 -> 1 [labeldistance=2.5, labelangle=45, headlabel="True"] ;
2 [label="average <= 46.8\nmse = 34.2\nsamples = 54\nvalue = 50.4"] ;
1 -> 2 ;
3 [label="mse = 19.2\nsamples = 16\nvalue = 43.6"] ;
2 -> 3 ;
4 [label="mse = 12.0\nsamples = 38\nvalue = 53.3"] ;
2 -> 4 ;
5 [label="friend <= 47.5\nmse = 15.9\nsamples = 38\nvalue = 61.4"] ;
1 -> 5 ;
6 [label="mse = 5.2\nsamples = 11\nvalue = 58.3"] ;
5 -> 6 ;
7 [label="mse = 13.9\nsamples = 27\nvalue = 63.0"] ;
5 -> 7 ;
8 [label="temp_1 <= 76.5\nmse = 40.0\nsamples = 71\nvalue = 75.1"] ;
0 -> 8 [labeldistance=2.5, labelangle=-45, headlabel="False"] ;
9 [label="temp_1 <= 69.5\nmse = 23.5\nsamples = 49\nvalue = 72.9"] ;
8 -> 9 ;
10 [label="mse = 22.1\nsamples = 15\nvalue = 69.3"] ;
9 -> 10 ;
11 [label="mse = 15.3\nsamples = 34\nvalue = 74.6"] ;
9 -> 11 ;
12 [label="day <= 16.0\nmse = 43.4\nsamples = 22\nvalue = 79.9"] ;
8 -> 12 ;
13 [label="mse = 40.8\nsamples = 10\nvalue = 75.1"] ;
12 -> 13 ;
14 [label="mse = 26.0\nsamples = 12\nvalue = 82.5"] ;
12 -> 14 ;
}