digraph Tree {
node [shape=box, style="filled, rounded", color="black", fontname=helvetica] ;
edge [fontname=helvetica] ;
0 [label="RM <= 7.32\nmse = 89.51\nsamples = 100.0%\nvalue = 23.05", fillcolor="#e5813962"] ;
1 [label="LSTAT <= 14.89\n47.77\n92.8%\n21.11", fillcolor="#e5813956"] ;
0 -> 1 [labeldistance=2.5, labelangle=45, headlabel="True"] ;
2 [label="LSTAT <= 5.49\n32.18\n63.5%\n24.38", fillcolor="#e5813969"] ;
1 -> 2 ;
3 [label="RM <= 6.49\n24.5\n11.7%\n31.93", fillcolor="#e5813996"] ;
2 -> 3 ;
4 [label="TAX <= 254.5\n3.0\n2.3%\n24.98", fillcolor="#e581396d"] ;
3 -> 4 ;
5 [label="0.0\n0.5%\n28.7", fillcolor="#e5813983"] ;
4 -> 5 ;
6 [label="0.28\n1.8%\n24.24", fillcolor="#e5813969"] ;
4 -> 6 ;
7 [label="CRIM <= 3.06\n17.52\n9.5%\n33.27", fillcolor="#e581399d"] ;
3 -> 7 ;
8 [label="8.47\n9.0%\n32.71", fillcolor="#e581399a"] ;
7 -> 8 ;
9 [label="0.0\n0.5%\n50.0", fillcolor="#e58139ff"] ;
7 -> 9 ;
10 [label="DIS <= 1.24\n18.76\n51.8%\n22.74", fillcolor="#e5813960"] ;
2 -> 10 ;
11 [label="0.0\n0.5%\n50.0", fillcolor="#e58139ff"] ;
10 -> 11 ;
12 [label="LSTAT <= 10.16\n14.45\n51.4%\n22.58", fillcolor="#e581395f"] ;
10 -> 12 ;
13 [label="14.63\n25.2%\n24.39", fillcolor="#e581396a"] ;
12 -> 13 ;
14 [label="8.64\n26.1%\n20.94", fillcolor="#e5813955"] ;
12 -> 14 ;
15 [label="CRIM <= 7.87\n15.69\n29.3%\n14.65", fillcolor="#e5813931"] ;
1 -> 15 ;
16 [label="CRIM <= 0.35\n9.1\n15.8%\n16.74", fillcolor="#e581393d"] ;
15 -> 16 ;
17 [label="RM <= 6.08\n7.39\n5.4%\n19.02", fillcolor="#e581394a"] ;
16 -> 17 ;
18 [label="4.33\n5.0%\n18.61", fillcolor="#e5813948"] ;
17 -> 18 ;
19 [label="-0.0\n0.5%\n27.1", fillcolor="#e5813979"] ;
17 -> 19 ;
20 [label="AGE <= 84.55\n5.71\n10.4%\n15.51", fillcolor="#e5813936"] ;
16 -> 20 ;
21 [label="5.89\n1.8%\n19.35", fillcolor="#e581394c"] ;
20 -> 21 ;
22 [label="2.5\n8.6%\n14.81", fillcolor="#e5813932"] ;
20 -> 22 ;
23 [label="LSTAT <= 23.89\n10.95\n13.5%\n11.87", fillcolor="#e5813921"] ;
15 -> 23 ;
24 [label="B <= 387.62\n5.15\n9.0%\n13.75", fillcolor="#e581392b"] ;
23 -> 24 ;
25 [label="4.15\n6.3%\n14.72", fillcolor="#e5813931"] ;
24 -> 25 ;
26 [label="1.94\n2.7%\n11.92", fillcolor="#e5813921"] ;
24 -> 26 ;
27 [label="CRIM <= 20.55\n7.45\n4.5%\n9.3", fillcolor="#e5813912"] ;
23 -> 27 ;
28 [label="5.04\n2.7%\n10.37", fillcolor="#e5813918"] ;
27 -> 28 ;
29 [label="1.98\n1.8%\n6.3", fillcolor="#e5813900"] ;
27 -> 29 ;
30 [label="RM <= 7.41\n22.49\n7.2%\n45.54", fillcolor="#e58139e5"] ;
0 -> 30 [labeldistance=2.5, labelangle=-45, headlabel="False"] ;
31 [label="LSTAT <= 6.26\n5.06\n0.9%\n33.75", fillcolor="#e58139a0"] ;
30 -> 31 ;
32 [label="0.0\n0.5%\n31.5", fillcolor="#e5813993"] ;
31 -> 32 ;
33 [label="0.0\n0.5%\n36.0", fillcolor="#e58139ad"] ;
31 -> 33 ;
34 [label="B <= 385.23\n11.89\n6.3%\n46.48", fillcolor="#e58139ea"] ;
30 -> 34 ;
35 [label="AGE <= 58.35\n2.69\n3.2%\n48.84", fillcolor="#e58139f8"] ;
34 -> 35 ;
36 [label="RM <= 7.67\n0.12\n0.9%\n46.35", fillcolor="#e58139ea"] ;
35 -> 36 ;
37 [label="0.0\n0.5%\n46.0", fillcolor="#e58139e8"] ;
36 -> 37 ;
38 [label="0.0\n0.5%\n46.7", fillcolor="#e58139ec"] ;
36 -> 38 ;
39 [label="CRIM <= 0.43\n0.26\n2.3%\n49.83", fillcolor="#e58139fe"] ;
35 -> 39 ;
40 [label="0.0\n0.5%\n48.3", fillcolor="#e58139f5"] ;
39 -> 40 ;
41 [label="0.0\n1.8%\n50.0", fillcolor="#e58139ff"] ;
39 -> 41 ;
42 [label="ZN <= 92.5\n7.53\n3.2%\n43.48", fillcolor="#e58139d9"] ;
34 -> 42 ;
43 [label="TAX <= 218.5\n2.37\n2.7%\n42.37", fillcolor="#e58139d2"] ;
42 -> 43 ;
44 [label="0.0\n0.5%\n39.8", fillcolor="#e58139c3"] ;
43 -> 44 ;
45 [label="0.63\n2.3%\n43.1", fillcolor="#e58139d7"] ;
43 -> 45 ;
46 [label="0.0\n0.5%\n48.5", fillcolor="#e58139f6"] ;
42 -> 46 ;
}