digraph Tree {
node [shape=box, style="filled, rounded", color="black", fontname=helvetica] ;
edge [fontname=helvetica] ;
0 [label="job_education_None <= 0.5\nmse = 1529087197.89\nsamples = 100.0%\nvalue = 91447.21", fillcolor="#e5813943"] ;
1 [label="job_education_Other <= 0.5\n1349741694.36\n94.6%\n94659.78", fillcolor="#e5813945"] ;
0 -> 1 [labeldistance=2.5, labelangle=45, headlabel="True"] ;
2 [label="job_level <= 2.5\n954175852.76\n92.0%\n92420.34", fillcolor="#e5813943"] ;
1 -> 2 ;
3 [label="job_state_CALIFORNIA <= 0.5\n773899109.6\n50.3%\n83590.55", fillcolor="#e581393d"] ;
2 -> 3 ;
4 [label="job_education_Bachelor's <= 0.5\n666951407.27\n35.6%\n77068.92", fillcolor="#e5813938"] ;
3 -> 4 ;
5 [label="721325914.45\n19.1%\n82700.01", fillcolor="#e581393c"] ;
4 -> 5 ;
6 [label="523514309.95\n16.4%\n70504.72", fillcolor="#e5813933"] ;
4 -> 6 ;
7 [label="employer_num_employees <= 44.5\n681460437.3\n14.7%\n99337.95", fillcolor="#e5813948"] ;
3 -> 7 ;
8 [label="778471779.95\n2.0%\n70363.74", fillcolor="#e5813933"] ;
7 -> 8 ;
9 [label="516445894.9\n12.7%\n103821.34", fillcolor="#e581394c"] ;
7 -> 9 ;
10 [label="job_state_TEXAS <= 0.5\n966194329.82\n41.7%\n102855.72", fillcolor="#e581394b"] ;
2 -> 10 ;
11 [label="job_state_CALIFORNIA <= 0.5\n941029805.17\n30.9%\n109876.56", fillcolor="#e5813950"] ;
10 -> 11 ;
12 [label="837048372.18\n23.1%\n104368.1", fillcolor="#e581394c"] ;
11 -> 12 ;
13 [label="891500034.9\n7.8%\n126266.72", fillcolor="#e581395c"] ;
11 -> 13 ;
14 [label="employer_num_employees <= 28700.0\n488142401.6\n10.8%\n82642.19", fillcolor="#e581393c"] ;
10 -> 14 ;
15 [label="841257045.62\n2.3%\n106997.18", fillcolor="#e581394e"] ;
14 -> 15 ;
16 [label="202105285.5\n8.5%\n76311.72", fillcolor="#e5813938"] ;
14 -> 16 ;
17 [label="employer_num_employees <= 29.5\n8890097740.3\n2.6%\n173910.36", fillcolor="#e581397f"] ;
1 -> 17 ;
18 [label="job_state_ARIZONA <= 0.5\n5751874847.21\n0.5%\n109686.31", fillcolor="#e5813950"] ;
17 -> 18 ;
19 [label="job_state_FLORIDA <= 0.5\n5080098121.58\n0.5%\n106624.99", fillcolor="#e581394e"] ;
18 -> 19 ;
20 [label="4762688948.91\n0.4%\n116493.87", fillcolor="#e5813955"] ;
19 -> 20 ;
21 [label="2762783589.81\n0.1%\n46065.91", fillcolor="#e5813922"] ;
19 -> 21 ;
22 [label="0.0\n0.0%\n350000.0", fillcolor="#e58139ff"] ;
18 -> 22 ;
23 [label="employer_num_employees <= 13450.0\n8478717768.72\n2.2%\n187918.08", fillcolor="#e5813989"] ;
17 -> 23 ;
24 [label="job_experience_num_months <= 18.0\n8947834405.52\n1.9%\n195928.66", fillcolor="#e581398f"] ;
23 -> 24 ;
25 [label="8876000752.56\n1.7%\n202694.97", fillcolor="#e5813994"] ;
24 -> 25 ;
26 [label="6185015154.67\n0.2%\n141405.87", fillcolor="#e5813967"] ;
24 -> 26 ;
27 [label="job_state_MASSACHUSETTS <= 0.5\n2956366390.51\n0.3%\n139777.58", fillcolor="#e5813966"] ;
23 -> 27 ;
28 [label="2775553389.1\n0.3%\n136576.57", fillcolor="#e5813963"] ;
27 -> 28 ;
29 [label="816502222.69\n0.0%\n219802.75", fillcolor="#e58139a0"] ;
27 -> 29 ;
30 [label="job_experience_num_months <= 30.0\n1284448111.74\n5.4%\n34535.06", fillcolor="#e5813919"] ;
0 -> 30 [labeldistance=2.5, labelangle=-45, headlabel="False"] ;
31 [label="job_level <= 1.5\n816213735.78\n4.9%\n28513.05", fillcolor="#e5813915"] ;
30 -> 31 ;
32 [label="job_experience_num_months <= 18.0\n490959049.79\n2.5%\n16536.39", fillcolor="#e581390c"] ;
31 -> 32 ;
33 [label="job_state_TEXAS <= 0.5\n248336041.64\n2.3%\n11810.87", fillcolor="#e5813909"] ;
32 -> 33 ;
34 [label="146093529.55\n2.2%\n11236.23", fillcolor="#e5813908"] ;
33 -> 34 ;
35 [label="6920305410.75\n0.0%\n65970.5", fillcolor="#e5813930"] ;
33 -> 35 ;
36 [label="employer_num_employees <= 2.5\n484105985.41\n0.2%\n63300.59", fillcolor="#e581392e"] ;
32 -> 36 ;
37 [label="152614016.81\n0.0%\n23769.69", fillcolor="#e5813911"] ;
36 -> 37 ;
38 [label="320351541.99\n0.2%\n67883.88", fillcolor="#e5813931"] ;
36 -> 38 ;
39 [label="employer_num_employees <= 634.5\n851654375.3\n2.4%\n40812.22", fillcolor="#e581391e"] ;
31 -> 39 ;
40 [label="job_experience_num_months <= 9.0\n595822256.14\n2.3%\n37687.45", fillcolor="#e581391b"] ;
39 -> 40 ;
41 [label="66045240.56\n0.3%\n22106.1", fillcolor="#e5813910"] ;
40 -> 41 ;
42 [label="629269514.33\n2.0%\n39729.78", fillcolor="#e581391d"] ;
40 -> 42 ;
43 [label="job_experience_num_months <= 18.0\n2309755595.23\n0.1%\n89788.1", fillcolor="#e5813941"] ;
39 -> 43 ;
44 [label="1002072694.03\n0.1%\n119780.37", fillcolor="#e5813957"] ;
43 -> 44 ;
45 [label="711588397.63\n0.0%\n42431.9", fillcolor="#e581391f"] ;
43 -> 45 ;
46 [label="employer_num_employees <= 229.5\n2018844934.69\n0.5%\n93894.9", fillcolor="#e5813944"] ;
30 -> 46 ;
47 [label="employer_num_employees <= 202.5\n1357022258.37\n0.3%\n79213.98", fillcolor="#e581393a"] ;
46 -> 47 ;
48 [label="employer_num_employees <= 18.5\n1222226147.94\n0.3%\n82265.31", fillcolor="#e581393c"] ;
47 -> 48 ;
49 [label="1260681461.09\n0.1%\n69907.75", fillcolor="#e5813933"] ;
48 -> 49 ;
50 [label="1001231379.19\n0.2%\n91288.3", fillcolor="#e5813942"] ;
48 -> 50 ;
51 [label="job_state_LOUISIANA <= 0.5\n563901961.42\n0.0%\n23781.38", fillcolor="#e5813911"] ;
47 -> 51 ;
52 [label="0.0\n0.0%\n47528.0", fillcolor="#e5813923"] ;
51 -> 52 ;
53 [label="0.0\n0.0%\n34.76", fillcolor="#e5813900"] ;
51 -> 53 ;
54 [label="job_experience_num_months <= 42.0\n1972485964.48\n0.2%\n125749.74", fillcolor="#e581395c"] ;
46 -> 54 ;
55 [label="employer_num_employees <= 2837.0\n2173487861.04\n0.0%\n63462.61", fillcolor="#e581392e"] ;
54 -> 55 ;
56 [label="2127348934.6\n0.0%\n35879.1", fillcolor="#e581391a"] ;
55 -> 56 ;
57 [label="91270516.5\n0.0%\n97942.0", fillcolor="#e5813947"] ;
55 -> 57 ;
58 [label="job_experience_num_months <= 180.0\n975478022.11\n0.1%\n138490.29", fillcolor="#e5813965"] ;
54 -> 58 ;
59 [label="905179026.46\n0.1%\n137036.58", fillcolor="#e5813964"] ;
58 -> 59 ;
60 [label="0.0\n0.0%\n201000.0", fillcolor="#e5813992"] ;
58 -> 60 ;
}