digraph Tree {
node [shape=box, style="filled, rounded", color="black", fontname=helvetica] ;
edge [fontname=helvetica] ;
0 [label="cgpa <= 8.63\nmse = 0.02\nsamples = 100.0%\nvalue = 0.73", fillcolor="#e58139a3"] ;
1 [label="cgpa <= 7.89\n0.01\n48.8%\n0.61", fillcolor="#e5813973"] ;
0 -> 1 [labeldistance=2.5, labelangle=45, headlabel="True"] ;
2 [label="cgpa <= 7.44\n0.01\n11.2%\n0.49", fillcolor="#e5813941"] ;
1 -> 2 ;
3 [label="sop <= 2.25\n0.0\n2.0%\n0.41", fillcolor="#e581391f"] ;
2 -> 3 ;
4 [label="gre_score <= 304.5\n0.0\n1.6%\n0.46", fillcolor="#e5813932"] ;
3 -> 4 ;
5 [label="0.0\n0.8%\n0.43", fillcolor="#e5813925"] ;
4 -> 5 ;
6 [label="0.0\n0.8%\n0.51", fillcolor="#e5813947"] ;
4 -> 6 ;
7 [label="0.0\n0.4%\n0.34", fillcolor="#e5813900"] ;
3 -> 7 ;
8 [label="research <= 0.5\n0.0\n9.2%\n0.52", fillcolor="#e581394d"] ;
2 -> 8 ;
9 [label="sop <= 4.5\n0.0\n8.0%\n0.51", fillcolor="#e5813948"] ;
8 -> 9 ;
10 [label="0.0\n7.6%\n0.51", fillcolor="#e581394a"] ;
9 -> 10 ;
11 [label="0.0\n0.4%\n0.38", fillcolor="#e5813911"] ;
9 -> 11 ;
12 [label="toefl_score <= 104.0\n0.0\n1.2%\n0.6", fillcolor="#e581396d"] ;
8 -> 12 ;
13 [label="0.0\n0.8%\n0.58", fillcolor="#e5813966"] ;
12 -> 13 ;
14 [label="-0.0\n0.4%\n0.61", fillcolor="#e5813973"] ;
12 -> 14 ;
15 [label="cgpa <= 8.32\n0.01\n37.6%\n0.65", fillcolor="#e5813984"] ;
1 -> 15 ;
16 [label="toefl_score <= 101.5\n0.01\n20.4%\n0.61", fillcolor="#e5813973"] ;
15 -> 16 ;
17 [label="sop <= 3.75\n0.01\n8.8%\n0.58", fillcolor="#e5813965"] ;
16 -> 17 ;
18 [label="0.0\n8.0%\n0.6", fillcolor="#e581396f"] ;
17 -> 18 ;
19 [label="0.0\n0.8%\n0.44", fillcolor="#e581392c"] ;
17 -> 19 ;
20 [label="sop <= 2.25\n0.01\n11.6%\n0.64", fillcolor="#e581397e"] ;
16 -> 20 ;
21 [label="0.01\n1.6%\n0.53", fillcolor="#e5813951"] ;
20 -> 21 ;
22 [label="0.0\n10.0%\n0.65", fillcolor="#e5813985"] ;
20 -> 22 ;
23 [label="gre_score <= 306.5\n0.0\n17.2%\n0.7", fillcolor="#e5813997"] ;
15 -> 23 ;
24 [label="cgpa <= 8.58\n0.0\n3.2%\n0.64", fillcolor="#e581397f"] ;
23 -> 24 ;
25 [label="0.0\n2.8%\n0.65", fillcolor="#e5813983"] ;
24 -> 25 ;
26 [label="0.0\n0.4%\n0.56", fillcolor="#e581395d"] ;
24 -> 26 ;
27 [label="sop <= 1.75\n0.0\n14.0%\n0.71", fillcolor="#e581399b"] ;
23 -> 27 ;
28 [label="0.0\n0.8%\n0.62", fillcolor="#e5813975"] ;
27 -> 28 ;
29 [label="0.0\n13.2%\n0.71", fillcolor="#e581399e"] ;
27 -> 29 ;
30 [label="cgpa <= 9.15\n0.01\n51.2%\n0.84", fillcolor="#e58139d3"] ;
0 -> 30 [labeldistance=2.5, labelangle=-45, headlabel="False"] ;
31 [label="cgpa <= 8.97\n0.0\n30.4%\n0.78", fillcolor="#e58139bb"] ;
30 -> 31 ;
32 [label="gre_score <= 319.5\n0.0\n18.0%\n0.75", fillcolor="#e58139ae"] ;
31 -> 32 ;
33 [label="sop <= 2.25\n0.0\n10.0%\n0.73", fillcolor="#e58139a3"] ;
32 -> 33 ;
34 [label="0.0\n0.4%\n0.64", fillcolor="#e581397f"] ;
33 -> 34 ;
35 [label="0.0\n9.6%\n0.73", fillcolor="#e58139a4"] ;
33 -> 35 ;
36 [label="toefl_score <= 109.5\n0.0\n8.0%\n0.78", fillcolor="#e58139bb"] ;
32 -> 36 ;
37 [label="0.0\n2.4%\n0.73", fillcolor="#e58139a7"] ;
36 -> 37 ;
38 [label="0.0\n5.6%\n0.79", fillcolor="#e58139c1"] ;
36 -> 38 ;
39 [label="sop <= 3.25\n0.0\n12.4%\n0.82", fillcolor="#e58139cc"] ;
31 -> 39 ;
40 [label="gre_score <= 326.5\n0.01\n1.6%\n0.75", fillcolor="#e58139ad"] ;
39 -> 40 ;
41 [label="0.0\n1.2%\n0.82", fillcolor="#e58139cb"] ;
40 -> 41 ;
42 [label="0.0\n0.4%\n0.61", fillcolor="#e5813973"] ;
40 -> 42 ;
43 [label="university_rating <= 4.5\n0.0\n10.8%\n0.83", fillcolor="#e58139d0"] ;
39 -> 43 ;
44 [label="0.0\n9.2%\n0.82", fillcolor="#e58139ce"] ;
43 -> 44 ;
45 [label="0.0\n1.6%\n0.87", fillcolor="#e58139e0"] ;
43 -> 45 ;
46 [label="gre_score <= 319.0\n0.0\n20.8%\n0.91", fillcolor="#e58139f4"] ;
30 -> 46 ;
47 [label="0.0\n0.4%\n0.68", fillcolor="#e5813990"] ;
46 -> 47 ;
48 [label="cgpa <= 9.41\n0.0\n20.4%\n0.92", fillcolor="#e58139f5"] ;
46 -> 48 ;
49 [label="toefl_score <= 114.5\n0.0\n9.6%\n0.9", fillcolor="#e58139ed"] ;
48 -> 49 ;
50 [label="0.0\n6.0%\n0.89", fillcolor="#e58139ea"] ;
49 -> 50 ;
51 [label="0.0\n3.6%\n0.91", fillcolor="#e58139f3"] ;
49 -> 51 ;
52 [label="cgpa <= 9.47\n0.0\n10.8%\n0.94", fillcolor="#e58139fd"] ;
48 -> 52 ;
53 [label="0.0\n3.2%\n0.92", fillcolor="#e58139f7"] ;
52 -> 53 ;
54 [label="0.0\n7.6%\n0.94", fillcolor="#e58139ff"] ;
52 -> 54 ;
}