digraph Tree {
node [shape=box, style="filled, rounded", color="black", fontname=helvetica] ;
edge [fontname=helvetica] ;
0 [label="cgpa <= 8.74\nmse = 0.02\nsamples = 100.0%\nvalue = 0.73", fillcolor="#e5813994"] ;
1 [label="cgpa <= 8.03\n0.01\n54.5%\n0.64", fillcolor="#e5813969"] ;
0 -> 1 [labeldistance=2.5, labelangle=45, headlabel="True"] ;
2 [label="cgpa <= 7.75\n0.01\n16.5%\n0.53", fillcolor="#e5813937"] ;
1 -> 2 ;
3 [label="gre_score <= 305.5\n0.0\n6.7%\n0.48", fillcolor="#e581391c"] ;
2 -> 3 ;
4 [label="gre_score <= 298.5\n0.0\n4.3%\n0.45", fillcolor="#e581390e"] ;
3 -> 4 ;
5 [label="0.0\n2.0%\n0.49", fillcolor="#e5813922"] ;
4 -> 5 ;
6 [label="0.0\n2.4%\n0.42", fillcolor="#e5813900"] ;
4 -> 6 ;
7 [label="toefl_score <= 98.5\n0.0\n2.4%\n0.52", fillcolor="#e5813930"] ;
3 -> 7 ;
8 [label="0.0\n0.4%\n0.49", fillcolor="#e5813922"] ;
7 -> 8 ;
9 [label="0.0\n2.0%\n0.54", fillcolor="#e5813938"] ;
7 -> 9 ;
10 [label="lor <= 3.75\n0.01\n9.8%\n0.57", fillcolor="#e5813947"] ;
2 -> 10 ;
11 [label="sop <= 3.75\n0.01\n8.6%\n0.56", fillcolor="#e5813941"] ;
10 -> 11 ;
12 [label="0.0\n7.5%\n0.54", fillcolor="#e5813939"] ;
11 -> 12 ;
13 [label="0.0\n1.2%\n0.65", fillcolor="#e581396d"] ;
11 -> 13 ;
14 [label="cgpa <= 7.85\n0.0\n1.2%\n0.65", fillcolor="#e581396e"] ;
10 -> 14 ;
15 [label="-0.0\n0.4%\n0.64", fillcolor="#e5813968"] ;
14 -> 15 ;
16 [label="0.0\n0.8%\n0.67", fillcolor="#e5813976"] ;
14 -> 16 ;
17 [label="gre_score <= 311.5\n0.01\n38.0%\n0.68", fillcolor="#e581397c"] ;
1 -> 17 ;
18 [label="sop <= 2.25\n0.01\n14.9%\n0.64", fillcolor="#e5813969"] ;
17 -> 18 ;
19 [label="toefl_score <= 103.5\n0.01\n0.8%\n0.48", fillcolor="#e581391b"] ;
18 -> 19 ;
20 [label="0.0\n0.4%\n0.64", fillcolor="#e5813968"] ;
19 -> 20 ;
21 [label="0.0\n0.4%\n0.42", fillcolor="#e5813901"] ;
19 -> 21 ;
22 [label="gre_score <= 307.5\n0.01\n14.1%\n0.65", fillcolor="#e581396f"] ;
18 -> 22 ;
23 [label="0.01\n8.2%\n0.63", fillcolor="#e5813964"] ;
22 -> 23 ;
24 [label="0.0\n5.9%\n0.7", fillcolor="#e5813983"] ;
22 -> 24 ;
25 [label="cgpa <= 8.24\n0.0\n23.1%\n0.71", fillcolor="#e5813988"] ;
17 -> 25 ;
26 [label="toefl_score <= 106.0\n0.01\n3.9%\n0.65", fillcolor="#e581396b"] ;
25 -> 26 ;
27 [label="0.0\n2.7%\n0.61", fillcolor="#e581395c"] ;
26 -> 27 ;
28 [label="0.0\n1.2%\n0.73", fillcolor="#e5813993"] ;
26 -> 28 ;
29 [label="research <= 0.5\n0.0\n19.2%\n0.72", fillcolor="#e581398d"] ;
25 -> 29 ;
30 [label="0.0\n9.8%\n0.7", fillcolor="#e5813983"] ;
29 -> 30 ;
31 [label="0.0\n9.4%\n0.75", fillcolor="#e581399a"] ;
29 -> 31 ;
32 [label="cgpa <= 9.15\n0.01\n45.5%\n0.85", fillcolor="#e58139c9"] ;
0 -> 32 [labeldistance=2.5, labelangle=-45, headlabel="False"] ;
33 [label="sop <= 3.25\n0.0\n23.5%\n0.79", fillcolor="#e58139ae"] ;
32 -> 33 ;
34 [label="gre_score <= 326.5\n0.01\n4.3%\n0.74", fillcolor="#e5813996"] ;
33 -> 34 ;
35 [label="gre_score <= 319.5\n0.0\n3.5%\n0.77", fillcolor="#e58139a6"] ;
34 -> 35 ;
36 [label="0.0\n1.6%\n0.73", fillcolor="#e5813992"] ;
35 -> 36 ;
37 [label="0.0\n2.0%\n0.82", fillcolor="#e58139bb"] ;
35 -> 37 ;
38 [label="university_rating <= 4.0\n0.0\n0.8%\n0.64", fillcolor="#e5813966"] ;
34 -> 38 ;
39 [label="0.0\n0.4%\n0.61", fillcolor="#e581395a"] ;
38 -> 39 ;
40 [label="0.0\n0.4%\n0.71", fillcolor="#e5813989"] ;
38 -> 40 ;
41 [label="cgpa <= 8.92\n0.0\n19.2%\n0.8", fillcolor="#e58139b3"] ;
33 -> 41 ;
42 [label="gre_score <= 320.5\n0.0\n7.5%\n0.77", fillcolor="#e58139a7"] ;
41 -> 42 ;
43 [label="0.0\n3.5%\n0.76", fillcolor="#e58139a0"] ;
42 -> 43 ;
44 [label="0.0\n3.9%\n0.79", fillcolor="#e58139ae"] ;
42 -> 44 ;
45 [label="gre_score <= 310.5\n0.0\n11.8%\n0.82", fillcolor="#e58139bb"] ;
41 -> 45 ;
46 [label="0.0\n0.4%\n0.66", fillcolor="#e5813972"] ;
45 -> 46 ;
47 [label="0.0\n11.4%\n0.82", fillcolor="#e58139bc"] ;
45 -> 47 ;
48 [label="gre_score <= 319.0\n0.0\n22.0%\n0.91", fillcolor="#e58139e8"] ;
32 -> 48 ;
49 [label="0.0\n0.4%\n0.68", fillcolor="#e581397b"] ;
48 -> 49 ;
50 [label="cgpa <= 9.41\n0.0\n21.6%\n0.91", fillcolor="#e58139ea"] ;
48 -> 50 ;
51 [label="toefl_score <= 115.5\n0.0\n10.2%\n0.9", fillcolor="#e58139e1"] ;
50 -> 51 ;
52 [label="0.0\n6.3%\n0.88", fillcolor="#e58139db"] ;
51 -> 52 ;
53 [label="0.0\n3.9%\n0.92", fillcolor="#e58139eb"] ;
51 -> 53 ;
54 [label="cgpa <= 9.72\n0.0\n11.4%\n0.94", fillcolor="#e58139f4"] ;
50 -> 54 ;
55 [label="0.0\n9.4%\n0.93", fillcolor="#e58139f0"] ;
54 -> 55 ;
56 [label="0.0\n2.0%\n0.96", fillcolor="#e58139ff"] ;
54 -> 56 ;
}